-0.126264 -0.00393706 -0.353764 0.556991 0.00134888 0.374899 -0.3459 0.000878936 -0.000728184 0.000176848 -0.0632832 0.0799336 -0.0148378 -0.00516896 0.0053322 0.0116113 0.0325629 -0.157225 -0.0319432 0.646284 0.001225 0.070094 0.00621028 0.00914984 0.134208 -0.04675 0.00734732 -0.00128186 -0.0081612 0.0166186 0.00030769 0.00111121 -0.833647 -0.000668364 0.146858 0.00169603 0.333446 0.00154919 -0.250576 -0.0143256 0.218059 0.00407972 -0.00032693 -0.152546 -0.363747 0.0782752 0.18824 -0.271403 -0.0867779 0.109858 -0.563674 -0.00817556 -0.00100855 0.142184 -0.123106 -0.0309578 -0.00926964 0.00585912 0.164361 0.84391 0.524178 0.00154218 -0.848617 0.39225 -0.120536 0.821219 -0.00040892 -0.457289 -0.274171 0.417592 0.000103567 0.0559084 -0.000204349 0.29026 0.130048 0.550734 0.0825044 -0.0141561 0.0036296 0.0451796 -0.235696 -0.390717 0.00233837 -0.00206752 0.00107872 -0.0929196 0.665563 -0.0122786 -0.125285 0.00061168 0.954231 -0.158081 0.00342123 -1.01445 -0.166477 0.00319083 0.00479024 0.214036 -0.478206 0.00134668 -0.266702 0.0123603 0.00147539 0.00428676 0.350906 -0.17507 -0.00184794 0.207046 0.180745 -0.662287 -0.239885 0.0513063 -0.39863 -0.0115568 0.206919 -0.000733236 -0.0174875 -0.00788 -0.00108264 0.0115373 0.00139958 -0.239996 0.048826 0.114213 -0.955522 0.00142542 0.194526 0.0680992 -0.000612268 -0.0859855 -0.261534 -0.000877324 0.445838 -0.0881104 0.158154 -0.017284 0.454856 0.0547084 -0.371697 0.109488 -0.00358213 -0.581108 0.0417736 0.0674403 -0.00106098 -0.000851764 0.31025 0.330716 -0.0484208 0.413199 0.0946968 0.00366262 -0.00133208 -0.00119635 0.332592 0.348243 0.00668756 -0.0171197 -0.273429 -0.583456 -0.979831 0.000837492 0.0214514 -0.0011213 -0.0115914 -0.160234 0.759427 -0.0112993 -0.0682832 0.00186907 0.0215234 -0.0014014 0.0367021 0.00138631 -0.151612 0.0212438 -0.305019 0.990296 0.0013534 0.00415116 0.0105238 0.000171982 0.264202 0.0179549 0.000614032 -0.0480208 0.000100952 -0.255667 0.00638096 0.107384 0.000252219 0.141876 -0.004876 -0.273089 -0.335882 0.115319 -0.158297 -0.0576972 -0.019615 -0.248832 -0.356373 -0.00668568 0.149027 0.0248603 0.354839 -0.000507808 0.332701 -0.0403928 0.0114267 -0.0013861 0.000490564 -0.103394 0.00042428 -0.00814104 -0.116154 0.087716 -0.000561064 0.0106339 -0.0167214 -0.967454 -0.0665548 0.00519544 0.496644 0.0015449 -0.0100866 -0.272192 -0.00196691 0.00105349 -9.34432e-05 0.00941832 0.00145594 -0.000160834 -0.0221798 -0.157363 -0.0149205 0.0749632 0.427617 -0.0414552 